<?xml version="1.0"?>
<opencv_storage>
<cascade>
  <stageType>BOOST</stageType>
  <featureType>LBP</featureType>
  <height>24</height>
  <width>24</width>
  <stageParams>
    <boostType>GAB</boostType>
    <minHitRate>9.9900001287460327e-01</minHitRate>
    <maxFalseAlarm>1.0000000149011612e-01</maxFalseAlarm>
    <weightTrimRate>9.4999999999999996e-01</weightTrimRate>
    <maxDepth>1</maxDepth>
    <maxWeakCount>100</maxWeakCount></stageParams>
  <featureParams>
    <maxCatCount>256</maxCatCount>
    <featSize>1</featSize></featureParams>
  <stageNum>21</stageNum>
  <stages>
    <!-- stage 0 -->
    <_>
      <maxWeakCount>7</maxWeakCount>
      <stageThreshold>-5.6837916374206543e-01</stageThreshold>
      <weakClassifiers>
        <_>
          <internalNodes>
            0 -1 4 -1115648848 -196610 -1345454081 -260 -1249282 -2 -1
            -3276802</internalNodes>
          <leafValues>
            -6.9918698072433472e-01 7.6836156845092773e-01</leafValues></_>
        <_>
          <internalNodes>
            0 -1 54 671826979 -1541406397 -259645100 -1534054400
            -1062956441 -1515681727 -1316357088 -522080080</internalNodes>
          <leafValues>
            -7.5188350677490234e-01 6.0032910108566284e-01</leafValues></_>
        <_>
          <internalNodes>
            0 -1 74 1342198160 -788463600 -1877998408 1493241920
            -2013224776 -1742731128 -2121760630 -1895775744</internalNodes>
          <leafValues>
            -6.7306131124496460e-01 6.6496950387954712e-01</leafValues></_>
        <_>
          <internalNodes>
            0 -1 224 -2013243601 1556156673 304882170 -187199055
            268963908 1476496421 -1600618368 -118763712</internalNodes>
          <leafValues>
            -6.3269400596618652e-01 6.9672244787216187e-01</leafValues></_>
        <_>
          <internalNodes>
            0 -1 152 20320861 83886337 -1875820143 1886421312 134218593
            -2138951544 -633327371 -57103456</internalNodes>
          <leafValues>
            -6.6858077049255371e-01 6.7822730541229248e-01</leafValues></_>
        <_>
          <internalNodes>
            0 -1 187 1878396765 -822116353 -16777218 -22052929
            2097110655 -8585217 -19261697 -453148675</internalNodes>
          <leafValues>
            -6.3592535257339478e-01 7.6091289520263672e-01</leafValues></_>
        <_>
          <internalNodes>
            0 -1 29 -1342341272 1819082670 -65537 -270532609 -1476395163
            -268959745 -705167363 -66059</internalNodes>
          <leafValues>
            -6.0748428106307983e-01 7.9393208026885986e-01</leafValues></_></weakClassifiers></_>
    <!-- stage 1 -->
    <_>
      <maxWeakCount>8</maxWeakCount>
      <stageThreshold>2.2444305941462517e-02</stageThreshold>
      <weakClassifiers>
        <_>
          <internalNodes>
            0 -1 217 -268550361 799989679 -537956384 -528547841
            -135217289 796917759 -34828 -419758171</internalNodes>
          <leafValues>
            -5.6692916154861450e-01 7.0520234107971191e-01</leafValues></_>
        <_>
          <internalNodes>
            0 -1 107 341991293 -2117597951 808452563 -1259191005
            163908748 605756672 -1599960640 -424612172</internalNodes>
          <leafValues>
            -6.1286377906799316e-01 6.7275625467300415e-01</leafValues></_>
        <_>
          <internalNodes>
            0 -1 207 -60481761 658667285 -252538851 -1301704576
            1476935748 1522537729 -795832112 -227025790</internalNodes>
          <leafValues>
            -6.6376745700836182e-01 6.7084336280822754e-01</leafValues></_>
        <_>
          <internalNodes>
            0 -1 193 2134810421 1069449085 -536870913 -152141896
            931004413 -9043969 -10284 -185271280</internalNodes>
          <leafValues>
            -6.0394406318664551e-01 7.0126444101333618e-01</leafValues></_>
        <_>
          <internalNodes>
            0 -1 59 541557903 -2062118649 -1333529506 -1830808574
            -1873739443 -817697769 -2147415932 -530281815</internalNodes>
          <leafValues>
            -7.5351476669311523e-01 5.6045049428939819e-01</leafValues></_>
        <_>
          <internalNodes>
            0 -1 55 -1046581036 -620756720 67110044 553713682 8553132
            25428992 2456 51053187</internalNodes>
          <leafValues>
            -7.5718671083450317e-01 5.5667597055435181e-01</leafValues></_>
        <_>
          <internalNodes>
            0 -1 131 -784252670 1426132993 1090523393 -1761345279
            -670564196 -735576055 152 -620527605</internalNodes>
          <leafValues>
            -6.6133487224578857e-01 6.4029228687286377e-01</leafValues></_>
        <_>
          <internalNodes>
            0 -1 95 -1079640263 2143222776 -1073759562 -134238688
            -536907816 -17498384 -553652242 -1921943954</internalNodes>
          <leafValues>
            -5.3483760356903076e-01 7.9160195589065552e-01</leafValues></_></weakClassifiers></_>
    <!-- stage 2 -->
    <_>
      <maxWeakCount>8</maxWeakCount>
      <stageThreshold>-5.5397372692823410e-02</stageThreshold>
      <weakClassifiers>
        <_>
          <internalNodes>
            0 -1 216 1073741607 -1342939185 -1053310 -1593835522
            -1211662569 -134217729 -134293648 -151060489</internalNodes>
          <leafValues>
            -5.1181101799011230e-01 6.6473990678787231e-01</leafValues></_>
        <_>
          <internalNodes>
            0 -1 117 1056591669 -1073807361 -32769 -1090584578 -8496002
            1610612735 -134340618 -1275711492</internalNodes>
          <leafValues>
            -5.5194234848022461e-01 6.6752231121063232e-01</leafValues></_>
        <_>
          <internalNodes>
            0 -1 33 -1930960445 110712085 -1603728754 -1294938091
            -1073737686 -478102463 -981098366 -503927870</internalNodes>
          <leafValues>
            -6.0954493284225464e-01 6.2630677223205566e-01</leafValues></_>
        <_>
          <internalNodes>
            0 -1 171 -1493627555 1039892479 -28673 -2195457 1878521837
            -33554433 -1074135572 -88801998</internalNodes>
          <leafValues>
            -4.8691093921661377e-01 7.4723047018051147e-01</leafValues></_>
        <_>
          <internalNodes>
            0 -1 202 -1315882623 16779264 -1052733296 -724417920
            -2004645113 1124207617 -1970099808 -410525936</internalNodes>
          <leafValues>
            -6.7407137155532837e-01 5.3317469358444214e-01</leafValues></_>
        <_>
          <internalNodes>
            0 -1 23 1145112261 1087246599 -939261936 -158332672
            -519503797 -1475673984 -400882944 -218262905</internalNodes>
          <leafValues>
            -6.1128717660903931e-01 6.4276653528213501e-01</leafValues></_>
        <_>
          <internalNodes>
            0 -1 44 1078108674 -1878786045 1627459603 1461829632
            -2147448702 -2147434487 -2139062102 -1053588949</internalNodes>
          <leafValues>
            -7.3452210426330566e-01 5.2282774448394775e-01</leafValues></_>
        <_>
          <internalNodes>
            0 -1 192 445728097 121676032 19104905 -1407057790 -527496937
            -775716605 -2071328075 -1079179292</internalNodes>
          <leafValues>
            -7.3591893911361694e-01 5.2801686525344849e-01</leafValues></_></weakClassifiers></_>
    <!-- stage 3 -->
    <_>
      <maxWeakCount>9</maxWeakCount>
      <stageThreshold>-2.0360095798969269e-01</stageThreshold>
      <weakClassifiers>
        <_>
          <internalNodes>
            0 -1 7 -689243394 -999638016 2096000491 117440770 -134349330
            -855837345 185991164 1608513279</internalNodes>
          <leafValues>
            -4.9797570705413818e-01 6.3172805309295654e-01</leafValues></_>
        <_>
          <internalNodes>
            0 -1 108 -568435397 1056308991 -16842769 -436568065
            2013200348 1602191359 -1642578 -1216457347</internalNodes>
          <leafValues>
            -4.5595073699951172e-01 7.1963137388229370e-01</leafValues></_>
        <_>
          <internalNodes>
            0 -1 205 -1006176761 -2063449855 25198963 -669679483
            -1474295744 -293550903 -1467317573 -222766139</internalNodes>
          <leafValues>
            -5.3739517927169800e-01 6.6772961616516113e-01</leafValues></_>
        <_>
          <internalNodes>
            0 -1 72 -1543389042 -1971060431 426113 -88989492 285759855
            1484800073 -922550168 -119363230</internalNodes>
          <leafValues>
            -6.1674326658248901e-01 5.5184447765350342e-01</leafValues></_>
        <_>
          <internalNodes>
            0 -1 201 -788298509 -2130689651 16810128 -1018687359
            -2147440477 -1702346624 -1308612448 -451969021</internalNodes>
          <leafValues>
            -5.8616268634796143e-01 6.4287477731704712e-01</leafValues></_>
        <_>
          <internalNodes>
            0 -1 111 13664393 -1794113536 1342456206 -250593255
            -1065318197 1619525632 696393867 -645921888</internalNodes>
          <leafValues>
            -4.9945646524429321e-01 7.0050257444381714e-01</leafValues></_>
        <_>
          <internalNodes>
            0 -1 91 1148440783 -1664855293 26280000 -1165094894
            1091176974 18972681 -527269824 -1344238750</internalNodes>
          <leafValues>
            -6.4156413078308105e-01 5.6814485788345337e-01</leafValues></_>
        <_>
          <internalNodes>
            0 -1 68 1756291211 -180814913 1736441727 570097518
            1602092526 -16777249 -268435474 1040185086</internalNodes>
          <leafValues>
            -4.9801903963088989e-01 6.9879686832427979e-01</leafValues></_>
        <_>
          <internalNodes>
            0 -1 197 1677919566 -1018625392 16777366 1434451968
            1686652936 -2013132800 -1601666929 -128137077</internalNodes>
          <leafValues>
            -5.3831285238265991e-01 6.1467134952545166e-01</leafValues></_></weakClassifiers></_>
    <!-- stage 4 -->
    <_>
      <maxWeakCount>10</maxWeakCount>
      <stageThreshold>-1.7525003850460052e-01</stageThreshold>
      <weakClassifiers>
        <_>
          <internalNodes>
            0 -1 71 -113174848 -201851026 336113421 1438965647
            -739248130 -32770 2003730253 996016085</internalNodes>
          <leafValues>
            -5.4603856801986694e-01 6.2073671817779541e-01</leafValues></_>
        <_>
          <internalNodes>
            0 -1 220 2130623411 1269759986 -14 -269680914 -302088193
            -941621250 -167807500 -438306954</internalNodes>
          <leafValues>
            -4.6550610661506653e-01 6.2943786382675171e-01</leafValues></_>
        <_>
          <internalNodes>
            0 -1 122 -2070933247 -401342457 -2012465882 -446803262
            2110095835 -935034236 -1601666904 -326629088</internalNodes>
          <leafValues>
            -5.7400089502334595e-01 5.7561713457107544e-01</leafValues></_>
        <_>
          <internalNodes>
            0 -1 14 -1124178119 -67108865 -84971778 -159531274
            1996486527 527826815 -587210777 -495059083</internalNodes>
          <leafValues>
            -5.3171795606613159e-01 6.0980224609375000e-01</leafValues></_>
        <_>
          <internalNodes>
            0 -1 113 201536831 -284081788 -805178620 -1588547327
            -2147479396 -1298003960 -1004495815 -1435581403</internalNodes>
          <leafValues>
            -5.9193384647369385e-01 5.6081146001815796e-01</leafValues></_>
        <_>
          <internalNodes>
            0 -1 177 1107411164 1497366593 16 -1055915775 1141444764
            -1878523775 16777600 1932099587</internalNodes>
          <leafValues>
            -6.8050789833068848e-01 5.0767672061920166e-01</leafValues></_>
        <_>
          <internalNodes>
            0 -1 27 -837368396 -1023245310 553750800 454250561
            1090716290 -2147467264 16793610 -930971637</internalNodes>
          <leafValues>
            -6.2903451919555664e-01 5.6077653169631958e-01</leafValues></_>
        <_>
          <internalNodes>
            0 -1 37 1082425349 1065633027 -1065286396 -1841921279
            436356131 251658248 -1476384050 -1501419445</internalNodes>
          <leafValues>
            -5.8737957477569580e-01 6.0225552320480347e-01</leafValues></_>
        <_>
          <internalNodes>
            0 -1 188 -158150131 1476460547 -1878982378 620757013
            -864026600 1216905216 -2146926200 -578649215</internalNodes>
          <leafValues>
            -6.5169465541839600e-01 5.5592608451843262e-01</leafValues></_>
        <_>
          <internalNodes>
            0 -1 151 1074058237 -771749888 2192 -267911164 -2013199720
            -1992261104 -2121564024 496173864</internalNodes>
          <leafValues>
            -6.4392399787902832e-01 5.2970653772354126e-01</leafValues></_></weakClassifiers></_>
    <!-- stage 5 -->
    <_>
      <maxWeakCount>10</maxWeakCount>
      <stageThreshold>-1.9403076171875000e-01</stageThreshold>
      <weakClassifiers>
        <_>
          <internalNodes>
            0 -1 41 570146648 -662635550 83890512 -1140982112 -172066
            -825458732 1400930543 457209162</internalNodes>
          <leafValues>
            -4.7083333134651184e-01 5.9166663885116577e-01</leafValues></_>
        <_>
          <internalNodes>
            0 -1 222 -17825997 2046820351 -1091633219 -185270273
            -134889711 -134742017 -1224738836 -144195609</internalNodes>
          <leafValues>
            -4.1638883948326111e-01 7.0800197124481201e-01</leafValues></_>
        <_>
          <internalNodes>
            0 -1 51 1843080511 -322039295 -1073625915 -45088766
            1786773521 -939376640 16875651 -257900361</internalNodes>
          <leafValues>
            -5.1357394456863403e-01 5.8073008060455322e-01</leafValues></_>
        <_>
          <internalNodes>
            0 -1 186 104338549 -2025824252 -2145124159 1879359507
            573211053 168853520 -723506960 -478093302</internalNodes>
          <leafValues>
            -4.8996034264564514e-01 6.0221236944198608e-01</leafValues></_>
        <_>
          <internalNodes>
            0 -1 63 -2138926652 -1706774527 1073743056 -1874591616
            402817033 218761738 -2130542453 -250113685</internalNodes>
          <leafValues>
            -6.6622638702392578e-01 4.7090962529182434e-01</leafValues></_>
        <_>
          <internalNodes>
            0 -1 82 805536417 -1743155200 1342243089 286277649 428378241
            687865856 1107331203 489324554</internalNodes>
          <leafValues>
            -6.4744329452514648e-01 4.7674790024757385e-01</leafValues></_>
        <_>
          <internalNodes>
            0 -1 200 2043371615 282132738 -2147262443 822149263
            -393609215 185073664 -1433747216 -69189613</internalNodes>
          <leafValues>
            -6.2994623184204102e-01 4.6989047527313232e-01</leafValues></_>
        <_>
          <internalNodes>
            0 -1 37 546697047 2017859365 1915912240 -771726569
            -1341570289 -1073083135 -1878933495 -721688445</internalNodes>
          <leafValues>
            -5.6826800107955933e-01 5.6677454710006714e-01</leafValues></_>
        <_>
          <internalNodes>
            0 -1 154 -1063780040 1746096128 524482 -1458567133
            1073873299 -402653112 -1073151868 520110153</internalNodes>
          <leafValues>
            -7.5748622417449951e-01 4.2460945248603821e-01</leafValues></_>
        <_>
          <internalNodes>
            0 -1 213 1073737527 633208810 -1073741902 -135352322
            -1073774733 -537067657 -671091210 -957366285</internalNodes>
          <leafValues>
            -5.0710839033126831e-01 6.6342884302139282e-01</leafValues></_></weakClassifiers></_>
    <!-- stage 6 -->
    <_>
      <maxWeakCount>11</maxWeakCount>
      <stageThreshold>-2.8239092230796814e-01</stageThreshold>
      <weakClassifiers>
        <_>
          <internalNodes>
            0 -1 183 1006403053 -1098903628 1878791421 -788462084
            -134807623 -9142351 503209916 -1918263996</internalNodes>
          <leafValues>
            -4.3738657236099243e-01 6.7950695753097534e-01</leafValues></_>
        <_>
          <internalNodes>
            0 -1 49 58771839 -810941952 1074868224 -473894832 839484072
            772309248 1611141153 -645867387</internalNodes>
          <leafValues>
            -5.2338290214538574e-01 5.7791620492935181e-01</leafValues></_>
        <_>
          <internalNodes>
            0 -1 160 259899317 905773052 -149 -1074069524 2139062143
            1970798591 -167804931 -419532852</internalNodes>
          <leafValues>
            -5.0840109586715698e-01 5.9414249658584595e-01</leafValues></_>
        <_>
          <internalNodes>
            0 -1 99 2092034721 334983167 -17340626 -240648388 234209277
            2088632319 805289917 1034244023</internalNodes>
          <leafValues>
            -4.4571009278297424e-01 6.6984635591506958e-01</leafValues></_>
        <_>
          <internalNodes>
            0 -1 119 1414234243 1358987294 22656 1224867868 1342227329
            -1056702208 51370 -1383559154</internalNodes>
          <leafValues>
            -5.4852402210235596e-01 5.7542896270751953e-01</leafValues></_>
        <_>
          <internalNodes>
            0 -1 218 -1350598669 -1480589393 -268435470 -85066002
            -8437762 -524425 939481072 -177209347</internalNodes>
          <leafValues>
            -4.9499213695526123e-01 6.7027848958969116e-01</leafValues></_>
        <_>
          <internalNodes>
            0 -1 129 -334937071 1358954568 8388744 1493172243
            -1845444470 -2145386496 -1853579127 428572738</internalNodes>
          <leafValues>
            -5.4958355426788330e-01 5.9832602739334106e-01</leafValues></_>
        <_>
          <internalNodes>
            0 -1 116 137380317 2047033618 -1878945581 -1979186925
            805441550 -134151168 -938835324 -400416239</internalNodes>
          <leafValues>
            -5.8166408538818359e-01 5.7393056154251099e-01</leafValues></_>
        <_>
          <internalNodes>
            0 -1 61 1611142303 -251571903 285212945 822105160 67145867
            -1568669696 -2147450806 -1565343488</internalNodes>
          <leafValues>
            -5.7408058643341064e-01 5.8642190694808960e-01</leafValues></_>
        <_>
          <internalNodes>
            0 -1 179 1131779 -1710112509 286351489 -1535082368 37765260
            -1987575664 -1585381212 -155662880</internalNodes>
          <leafValues>
            -6.9312244653701782e-01 4.8385453224182129e-01</leafValues></_>
        <_>
          <internalNodes>
            0 -1 24 2055122146 2080354109 738143095 939524030 1174390199
            -2057 939419852 751796205</internalNodes>
          <leafValues>
            -5.4720956087112427e-01 6.4540523290634155e-01</leafValues></_></weakClassifiers></_>
    <!-- stage 7 -->
    <_>
      <maxWeakCount>12</maxWeakCount>
      <stageThreshold>-3.8617318868637085e-01</stageThreshold>
      <weakClassifiers>
        <_>
          <internalNodes>
            0 -1 18 -935165842 -2147483630 1879048195 285347841 170
            8393216 1074020490 65578</internalNodes>
          <leafValues>
            -6.6565346717834473e-01 4.8105624318122864e-01</leafValues></_>
        <_>
          <internalNodes>
            0 -1 92 1346371601 287113362 152109398 -1250885562 268436394
            -2010644352 -1879004468 -620478326</internalNodes>
          <leafValues>
            -5.7449734210968018e-01 4.9251529574394226e-01</leafValues></_>
        <_>
          <internalNodes>
            0 -1 204 -769664767 1090816513 131099 541098112 -2113363952
            -1610448896 8437819 -622931782</internalNodes>
          <leafValues>
            -5.1982468366622925e-01 5.3114169836044312e-01</leafValues></_>
        <_>
          <internalNodes>
            0 -1 76 -1744236393 412303363 1082130838 1007685764
            -1744699384 -2013265918 -2008936448 -15023990</internalNodes>
          <leafValues>
            -5.4712611436843872e-01 5.3197133541107178e-01</leafValues></_>
        <_>
          <internalNodes>
            0 -1 98 -1912041213 -1694362367 2289937 814862357 134778890
            -2030042750 -1994293103 -1394949693</internalNodes>
          <leafValues>
            -5.4669845104217529e-01 5.3981643915176392e-01</leafValues></_>
        <_>
          <internalNodes>
            0 -1 158 -1585168623 -1425424380 -2147385143 -937950909
            -1954545638 285376512 -1073577910 -1867378432</internalNodes>
          <leafValues>
            -5.9508699178695679e-01 4.5111089944839478e-01</leafValues></_>
        <_>
          <internalNodes>
            0 -1 198 -620662445 142835712 16908302 -258928624 134250674
            1074401280 -2139053888 -431779660</internalNodes>
          <leafValues>
            -5.7593291997909546e-01 4.9831092357635498e-01</leafValues></_>
        <_>
          <internalNodes>
            0 -1 36 -972783169 -803569207 -1877991387 -234455024
            -2139092992 -1962407935 -1476296694 -173817725</internalNodes>
          <leafValues>
            -5.1403522491455078e-01 5.3412371873855591e-01</leafValues></_>
        <_>
          <internalNodes>
            0 -1 159 2137964269 -272629772 -33728520 1031782253
            -571064840 -1376256137 -25239586 1965506426</internalNodes>
          <leafValues>
            -4.9044582247734070e-01 5.8060967922210693e-01</leafValues></_>
        <_>
          <internalNodes>
            0 -1 43 581828226 1069547261 -16924681 -1074221313
            -1402474523 234848255 1610593743 226038907</internalNodes>
          <leafValues>
            -5.3788554668426514e-01 5.8378201723098755e-01</leafValues></_>
        <_>
          <internalNodes>
            0 -1 161 286336000 1392513024 1342242888 1469186048 98533
            1820344320 -1977613711 -964681724</internalNodes>
          <leafValues>
            -7.1648430824279785e-01 3.9659279584884644e-01</leafValues></_>
        <_>
          <internalNodes>
            0 -1 17 -1576017657 -1589571552 -1056751343 -752844720 16434
            1073872896 49803 -913606526</internalNodes>
          <leafValues>
            -5.7286018133163452e-01 5.4436105489730835e-01</leafValues></_></weakClassifiers></_>
    <!-- stage 8 -->
    <_>
      <maxWeakCount>11</maxWeakCount>
      <stageThreshold>6.7319728434085846e-02</stageThreshold>
      <weakClassifiers>
        <_>
          <internalNodes>
            0 -1 155 -543533576 138 8388625 589897 1207959554 131072
            -2113892351 58802304</internalNodes>
          <leafValues>
            -6.0209423303604126e-01 5.2567237615585327e-01</leafValues></_>
        <_>
          <internalNodes>
            0 -1 70 1409303042 328323139 -1727491838 4276545 -1878417216
            146800656 1073776657 696387722</internalNodes>
          <leafValues>
            -6.1087441444396973e-01 4.4279500842094421e-01</leafValues></_>
        <_>
          <internalNodes>
            0 -1 212 22495237 -1862270974 65552 -1073741824 26280322
            -2004353023 167985216 -712310365</internalNodes>
          <leafValues>
            -6.5566164255142212e-01 4.1291087865829468e-01</leafValues></_>
        <_>
          <internalNodes>
            0 -1 46 -1356600269 2146119668 -16777218 -131469 1333223413
            -129 1455290359 -839000721</internalNodes>
          <leafValues>
            -4.3932592868804932e-01 6.7739808559417725e-01</leafValues></_>
        <_>
          <internalNodes>
            0 -1 79 822334041 1092157633 268435600 1347698739 -922484598
            311033858 -2138535608 -184500039</internalNodes>
          <leafValues>
            -5.3746718168258667e-01 5.6053334474563599e-01</leafValues></_>
        <_>
          <internalNodes>
            0 -1 150 519949653 -67174532 -1073758275 -34178122
            2113257452 -579379340 -8292 -1081002786</internalNodes>
          <leafValues>
            -5.1365292072296143e-01 5.9846729040145874e-01</leafValues></_>
        <_>
          <internalNodes>
            0 -1 32 -1706936123 -738017280 1208369280 1358954498
            16793600 -1828716542 -2071854964 -1165786981</internalNodes>
          <leafValues>
            -5.4745298624038696e-01 5.9581732749938965e-01</leafValues></_>
        <_>
          <internalNodes>
            0 -1 87 -498892772 -1019199472 16793729 285802506
            -1602178400 547880960 197002 1090756648</internalNodes>
          <leafValues>
            -6.5282607078552246e-01 4.5851403474807739e-01</leafValues></_>
        <_>
          <internalNodes>
            0 -1 173 -2129702512 1073807938 20623 1145503747 268607768
            -939524094 9568316 1744871427</internalNodes>
          <leafValues>
            -6.6338831186294556e-01 4.9108448624610901e-01</leafValues></_>
        <_>
          <internalNodes>
            0 -1 69 1419477656 1359610121 -2130706032 524570642 45099
            -1878917110 270180488 1384349827</internalNodes>
          <leafValues>
            -6.0417902469635010e-01 4.6793040633201599e-01</leafValues></_>
        <_>
          <internalNodes>
            0 -1 215 1561424163 54591513 540739 1376584079 -2004319934
            -1702231923 -2147483520 -309669698</internalNodes>
          <leafValues>
            -6.2617361545562744e-01 4.7954162955284119e-01</leafValues></_></weakClassifiers></_>
    <!-- stage 9 -->
    <_>
      <maxWeakCount>11</maxWeakCount>
      <stageThreshold>-4.7004586458206177e-01</stageThreshold>
      <weakClassifiers>
        <_>
          <internalNodes>
            0 -1 30 34212 -1275067888 66564 -1341128677 41943472
            -1333788544 151527914 1633259742</internalNodes>
          <leafValues>
            -7.0976251363754272e-01 5.7125455141067505e-01</leafValues></_>
        <_>
          <internalNodes>
            0 -1 21 -469662377 -436059889 -1056947966 -65486844
            1612185611 1342308354 67600 -437026143</internalNodes>
          <leafValues>
            -5.6689250469207764e-01 5.4035711288452148e-01</leafValues></_>
        <_>
          <internalNodes>
            0 -1 210 5488983 65712 25231440 -494337775 -527806257
            -921993016 1353108116 -492093438</internalNodes>
          <leafValues>
            -4.8946875333786011e-01 6.0950225591659546e-01</leafValues></_>
        <_>
          <internalNodes>
            0 -1 121 -219357183 1455140227 -1346374086 -1073844225
            -134757183 -1082163330 654130806 976486173</internalNodes>
          <leafValues>
            -4.6550485491752625e-01 6.6142493486404419e-01</leafValues></_>
        <_>
          <internalNodes>
            0 -1 16 -511642927 -804781790 285217053 1931510096 152
            1350566016 1084227584 59969665</internalNodes>
          <leafValues>
            -5.5357521772384644e-01 5.6535667181015015e-01</leafValues></_>
        <_>
          <internalNodes>
            0 -1 126 -1073713127 454033408 285278484 488701976
            -1879041912 8388612 302024936 1493271298</internalNodes>
          <leafValues>
            -5.7740384340286255e-01 5.4880219697952271e-01</leafValues></_>
        <_>
          <internalNodes>
            0 -1 211 -335162607 -805240832 16401 291195144 41690
            -1859649400 281553036 -1952476984</internalNodes>
          <leafValues>
            -5.1019167900085449e-01 6.5178894996643066e-01</leafValues></_>
        <_>
          <internalNodes>
            0 -1 101 -784297786 876679175 1052933 1895825537 -2105507696
            -2080342006 689459482 1645748867</internalNodes>
          <leafValues>
            -6.2976819276809692e-01 5.4297429323196411e-01</leafValues></_>
        <_>
          <internalNodes>
            0 -1 86 2131368482 1430290700 805339364 -2130034413 16810387
            1224736896 1610613384 1913325699</internalNodes>
          <leafValues>
            -5.6887394189834595e-01 5.4643899202346802e-01</leafValues></_>
        <_>
          <internalNodes>
            0 -1 130 1367556687 1342177280 17056005 21041219 -2146860884
            -2147483648 138412059 -1677164527</internalNodes>
          <leafValues>
            -5.0975358486175537e-01 6.1009061336517334e-01</leafValues></_>
        <_>
          <internalNodes>
            0 -1 60 -1690172969 -1862139901 8 356696337 -1610596312
            -2139095040 -2147483430 2005454857</internalNodes>
          <leafValues>
            -6.5009748935699463e-01 5.1931262016296387e-01</leafValues></_></weakClassifiers></_>
    <!-- stage 10 -->
    <_>
      <maxWeakCount>13</maxWeakCount>
      <stageThreshold>-4.2864903807640076e-01</stageThreshold>
      <weakClassifiers>
        <_>
          <internalNodes>
            0 -1 19 -836343819 -370262021 1073741759 -536903747
            1342136317 259320703 -974178956 -838916873</internalNodes>
          <leafValues>
            -2.8527608513832092e-01 7.0437955856323242e-01</leafValues></_>
        <_>
          <internalNodes>
            0 -1 127 503076131 -1930493953 2147418046 804749311
            -1082722915 -589825 -65572 -1179250945</internalNodes>
          <leafValues>
            -4.0302816033363342e-01 5.7990187406539917e-01</leafValues></_>
        <_>
          <internalNodes>
            0 -1 80 -1610550015 -1458454528 -1861726205 1376878993
            -2147446741 -1693810680 -2147442087 45043713</internalNodes>
          <leafValues>
            -5.3668022155761719e-01 4.8585709929466248e-01</leafValues></_>
        <_>
          <internalNodes>
            0 -1 196 -959036347 16777216 -1878998952 1094992216
            1208535183 2112 -2142715871 692593161</internalNodes>
          <leafValues>
            -6.0395777225494385e-01 4.3759199976921082e-01</leafValues></_>
        <_>
          <internalNodes>
            0 -1 140 1878918719 -1147670681 -33234 -1150292033 -4097
            -268435585 -1342259969 -1099073027</internalNodes>
          <leafValues>
            -4.3708550930023193e-01 6.5453600883483887e-01</leafValues></_>
        <_>
          <internalNodes>
            0 -1 112 1069285043 1072660465 -26 -557875469 1073741823
            1476392959 -1207959684 -1393139724</internalNodes>
          <leafValues>
            -4.3096545338630676e-01 6.0430318117141724e-01</leafValues></_>
        <_>
          <internalNodes>
            0 -1 102 1418100768 1930559616 268435522 1493303312
            168855563 16814208 -671069493 604002343</internalNodes>
          <leafValues>
            -6.7245292663574219e-01 4.1347768902778625e-01</leafValues></_>
        <_>
          <internalNodes>
            0 -1 168 1083216605 -804782064 24 68239746 1209565353
            151556232 -1341546324 2031552696</internalNodes>
          <leafValues>
            -5.7547664642333984e-01 4.8563626408576965e-01</leafValues></_>
        <_>
          <internalNodes>
            0 -1 64 -2146856685 -1711013882 128 825364610 -2147450742
            -2147287040 1612712074 480182331</internalNodes>
          <leafValues>
            -5.4487377405166626e-01 5.4825025796890259e-01</leafValues></_>
        <_>
          <internalNodes>
            0 -1 165 -791162751 1346437154 -2130706429 1090846802
            -2146794836 134217856 9201802 1493794826</internalNodes>
          <leafValues>
            -4.1944113373756409e-01 6.6685539484024048e-01</leafValues></_>
        <_>
          <internalNodes>
            0 -1 84 -2147315152 864567560 213280 1887522817 268435584
            1242038280 1376274475 554385418</internalNodes>
          <leafValues>
            -6.5863400697708130e-01 4.6159490942955017e-01</leafValues></_>
        <_>
          <internalNodes>
            0 -1 12 18600723 268584193 268501073 -636481212 8421377
            16875522 1073786884 -564866765</internalNodes>
          <leafValues>
            -6.1889320611953735e-01 4.8013907670974731e-01</leafValues></_>
        <_>
          <internalNodes>
            0 -1 203 -712928771 1396899988 8389060 -1065189376
            -930419620 285343744 -1467957114 1663043712</internalNodes>
          <leafValues>
            -6.3131588697433472e-01 5.0088185071945190e-01</leafValues></_></weakClassifiers></_>
    <!-- stage 11 -->
    <_>
      <maxWeakCount>13</maxWeakCount>
      <stageThreshold>-5.3363782167434692e-01</stageThreshold>
      <weakClassifiers>
        <_>
          <internalNodes>
            0 -1 195 -285258657 1853833215 -16777665 2054979579
            -151085313 -4227201 -151322886 -1707589643</internalNodes>
          <leafValues>
            -2.6735597848892212e-01 7.2848945856094360e-01</leafValues></_>
        <_>
          <internalNodes>
            0 -1 209 -1056370219 1342193674 16777216 1543590145
            -1610086232 168329216 17440960 -930250150</internalNodes>
          <leafValues>
            -4.7922772169113159e-01 5.2497005462646484e-01</leafValues></_>
        <_>
          <internalNodes>
            0 -1 11 905858609 -269254804 -1895891009 371224251
            2147483613 2139062237 536674216 120962927</internalNodes>
          <leafValues>
            -4.6654233336448669e-01 5.4318034648895264e-01</leafValues></_>
        <_>
          <internalNodes>
            0 -1 143 2030101640 -1795160304 268763365 1389482112
            293651183 -1870098432 268570799 1644902536</internalNodes>
          <leafValues>
            -5.5910849571228027e-01 4.8875379562377930e-01</leafValues></_>
        <_>
          <internalNodes>
            0 -1 172 -60836687 -193463017 -1342701721 -302088322
            830387336 931004279 200163177 2005237666</internalNodes>
          <leafValues>
            -4.0056917071342468e-01 6.3601744174957275e-01</leafValues></_>
        <_>
          <internalNodes>
            0 -1 53 -2013199952 87036673 419574028 -180748032 136323226
            -1610612607 -536856160 386025672</internalNodes>
          <leafValues>
            -6.2097501754760742e-01 4.6912214159965515e-01</leafValues></_>
        <_>
          <internalNodes>
            0 -1 94 -1476207353 369660930 335560851 -62909643 8388717
            1216348160 -1065303928 -142964477</internalNodes>
          <leafValues>
            -6.0340386629104614e-01 4.7493833303451538e-01</leafValues></_>
        <_>
          <internalNodes>
            0 -1 78 8388827 286326784 50401430 286343500 16777448
            -2113404783 -1744729542 188811398</internalNodes>
          <leafValues>
            -5.4000836610794067e-01 5.3229254484176636e-01</leafValues></_>
        <_>
          <internalNodes>
            0 -1 89 1217409111 -1903489015 1083408392 -1575874431
            -2012266484 -1895200767 159944736 -343630975</internalNodes>
          <leafValues>
            -6.1594772338867188e-01 4.5519939064979553e-01</leafValues></_>
        <_>
          <internalNodes>
            0 -1 223 855888035 -2063564800 145 1166643201 1074776065
            -2013200384 -2147399544 -798244853</internalNodes>
          <leafValues>
            -5.2304917573928833e-01 5.8117252588272095e-01</leafValues></_>
        <_>
          <internalNodes>
            0 -1 40 -2129641276 873463881 8196 -1156440045 -1996423032
            -1609989976 8421385 1472692320</internalNodes>
          <leafValues>
            -4.9946826696395874e-01 5.5903649330139160e-01</leafValues></_>
        <_>
          <internalNodes>
            0 -1 100 1502740664 8388817 603979783 899694730 -1610530758
            -805306350 -1995306909 537469144</internalNodes>
          <leafValues>
            -6.3430351018905640e-01 4.3240860104560852e-01</leafValues></_>
        <_>
          <internalNodes>
            0 -1 65 -1875688837 872509697 32880 1914085760 -2113863552
            696256936 26247178 -93134205</internalNodes>
          <leafValues>
            -5.6189453601837158e-01 4.9732008576393127e-01</leafValues></_></weakClassifiers></_>
    <!-- stage 12 -->
    <_>
      <maxWeakCount>11</maxWeakCount>
      <stageThreshold>-8.3874940872192383e-01</stageThreshold>
      <weakClassifiers>
        <_>
          <internalNodes>
            0 -1 166 1075971072 67174403 -1073708864 71369472 9324680
            196608 -1878521856 541081632</internalNodes>
          <leafValues>
            -8.1528663635253906e-01 5.1467269659042358e-01</leafValues></_>
        <_>
          <internalNodes>
            0 -1 28 -2113236542 318931458 16 -788529134 426121
            -1056898944 9 1494151305</internalNodes>
          <leafValues>
            -6.6042095422744751e-01 4.6439009904861450e-01</leafValues></_>
        <_>
          <internalNodes>
            0 -1 13 -1130235345 2120662895 -1359303762 455518778
            1694432957 -311003139 -705370646 259906687</internalNodes>
          <leafValues>
            -5.0584447383880615e-01 5.8582216501235962e-01</leafValues></_>
        <_>
          <internalNodes>
            0 -1 109 -1111695571 -98305 -1073741969 -344372 -17015308
            2097110399 -84104 -1156417762</internalNodes>
          <leafValues>
            -4.0203544497489929e-01 6.9279092550277710e-01</leafValues></_>
        <_>
          <internalNodes>
            0 -1 136 1073778898 -1694306176 67110160 1092616449 35262492
            537002114 -2130476030 806568707</internalNodes>
          <leafValues>
            -5.6464219093322754e-01 5.0457429885864258e-01</leafValues></_>
        <_>
          <internalNodes>
            0 -1 189 -904560511 -771686336 16602 -1862238144 -2139092934
            -2012692472 -1073729509 -1694265334</internalNodes>
          <leafValues>
            -4.9392861127853394e-01 5.9527850151062012e-01</leafValues></_>
        <_>
          <internalNodes>
            0 -1 133 -1547630077 -2142924735 16781505 -117129088
            134283392 167804936 -2147335800 1485458051</internalNodes>
          <leafValues>
            -5.9605091810226440e-01 5.7055425643920898e-01</leafValues></_>
        <_>
          <internalNodes>
            0 -1 190 -1443937707 -1069547520 65 537400197 -2071854935
            79691778 -931098101 -1971175420</internalNodes>
          <leafValues>
            -6.4696329832077026e-01 4.6428468823432922e-01</leafValues></_>
        <_>
          <internalNodes>
            0 -1 42 -1827646206 302104577 -1073721215 1880096768
            268435592 151030152 134260866 293687304</internalNodes>
          <leafValues>
            -6.4312309026718140e-01 4.6169078350067139e-01</leafValues></_>
        <_>
          <internalNodes>
            0 -1 58 978896078 -1912598270 -2147418112 -232652800
            20972042 1929609347 587333740 -225965949</internalNodes>
          <leafValues>
            -6.6042721271514893e-01 4.7729450464248657e-01</leafValues></_>
        <_>
          <internalNodes>
            0 -1 162 -1065269244 29499408 16842993 1350647808
            -1845395446 -2139095008 -2147434482 827687054</internalNodes>
          <leafValues>
            -6.5747922658920288e-01 4.6923962235450745e-01</leafValues></_></weakClassifiers></_>
    <!-- stage 13 -->
    <_>
      <maxWeakCount>11</maxWeakCount>
      <stageThreshold>-5.0573647022247314e-01</stageThreshold>
      <weakClassifiers>
        <_>
          <internalNodes>
            0 -1 52 17825920 -2095808380 -2147483632 -1124073216
            18024465 1073741952 152 10485768</internalNodes>
          <leafValues>
            -9.0443688631057739e-01 5.1267915964126587e-01</leafValues></_>
        <_>
          <internalNodes>
            0 -1 6 1827204533 -12545 -269568018 -302186625 108981749
            -1913225217 -844344219 -2013293267</internalNodes>
          <leafValues>
            -4.9611964821815491e-01 6.3431364297866821e-01</leafValues></_>
        <_>
          <internalNodes>
            0 -1 182 17891637 -2129723328 -2147397577 -1564176336
            16778329 1887600656 -1878914959 -1803418700</internalNodes>
          <leafValues>
            -7.1221810579299927e-01 4.0481668710708618e-01</leafValues></_>
        <_>
          <internalNodes>
            0 -1 224 -2111715269 352453128 49440 1073938432 -2139060189
            -2012676096 98434 -131475180</internalNodes>
          <leafValues>
            -5.1383882761001587e-01 5.3875732421875000e-01</leafValues></_>
        <_>
          <internalNodes>
            0 -1 22 1555562351 -1637831050 -17907858 1461758682
            2096529112 -562757761 -209912003 1610320943</internalNodes>
          <leafValues>
            -4.4393718242645264e-01 6.5336829423904419e-01</leafValues></_>
        <_>
          <internalNodes>
            0 -1 144 -35258719 192937983 -1342194069 720170943
            2146951070 905412471 -1493223427 830295999</internalNodes>
          <leafValues>
            -4.8163115978240967e-01 6.5449869632720947e-01</leafValues></_>
        <_>
          <internalNodes>
            0 -1 10 -134971452 -332052 -1191252230 1932639924 939392861
            -671481985 -33564977 1123013980</internalNodes>
          <leafValues>
            -3.8676565885543823e-01 7.1966189146041870e-01</leafValues></_>
        <_>
          <internalNodes>
            0 -1 184 786857853 1874493308 -268435469 -65548 1878851453
            2130640894 1040187263 -272798280</internalNodes>
          <leafValues>
            -5.0402742624282837e-01 6.0659819841384888e-01</leafValues></_>
        <_>
          <internalNodes>
            0 -1 106 -1381109982 1039921150 -1090584594 503283710
            1467936244 -1393164291 805109468 233262207</internalNodes>
          <leafValues>
            -4.7174736857414246e-01 6.8120652437210083e-01</leafValues></_>
        <_>
          <internalNodes>
            0 -1 50 -795737584 -956231680 1360072961 823136320
            -1879048064 335544320 -2147450238 870369289</internalNodes>
          <leafValues>
            -5.6705272197723389e-01 5.5482888221740723e-01</leafValues></_>
        <_>
          <internalNodes>
            0 -1 137 -788234032 -654245878 -2146418608 755171348
            536906376 -1073543168 2046959754 847315539</internalNodes>
          <leafValues>
            -5.7505553960800171e-01 5.6385010480880737e-01</leafValues></_></weakClassifiers></_>
    <!-- stage 14 -->
    <_>
      <maxWeakCount>13</maxWeakCount>
      <stageThreshold>-4.5774510502815247e-01</stageThreshold>
      <weakClassifiers>
        <_>
          <internalNodes>
            0 -1 83 352324096 1207960512 1073807488 -1055899566 42011
            -2147483648 268468497 -771751933</internalNodes>
          <leafValues>
            -7.7702701091766357e-01 4.7566372156143188e-01</leafValues></_>
        <_>
          <internalNodes>
            0 -1 206 1516108035 -1023016896 41009 -1002438636 13142016
            -2013233152 142606474 -83851207</internalNodes>
          <leafValues>
            -5.3207117319107056e-01 4.9652320146560669e-01</leafValues></_>
        <_>
          <internalNodes>
            0 -1 157 1669328339 -178880580 716144549 -424214546
            2097102028 -8519716 1974435597 1467121471</internalNodes>
          <leafValues>
            -3.7530967593193054e-01 6.4901381731033325e-01</leafValues></_>
        <_>
          <internalNodes>
            0 -1 134 -536770543 763609088 212 -934248443 -2147450839
            83918848 -1065353216 -425684910</internalNodes>
          <leafValues>
            -5.6051260232925415e-01 5.0175601243972778e-01</leafValues></_>
        <_>
          <internalNodes>
            0 -1 199 1258324035 55574544 33554465 -1005502459 34114203
            67176449 8937619 -1794414326</internalNodes>
          <leafValues>
            -5.1374316215515137e-01 5.2474969625473022e-01</leafValues></_>
        <_>
          <internalNodes>
            0 -1 81 -733966199 65538 5216 697384961 -2013265780
            -134217728 -2147464511 730731010</internalNodes>
          <leafValues>
            -5.6807905435562134e-01 5.0541019439697266e-01</leafValues></_>
        <_>
          <internalNodes>
            0 -1 145 2143276761 1672806389 -68456495 1723858812
            2012706445 -1132470441 -1526813030 1182170527</internalNodes>
          <leafValues>
            -3.6713817715644836e-01 7.5379234552383423e-01</leafValues></_>
        <_>
          <internalNodes>
            0 -1 104 -972896870 -2091483003 157060 -939487095 1342177418
            -527958008 16877203 541130891</internalNodes>
          <leafValues>
            -6.0932123661041260e-01 4.5610564947128296e-01</leafValues></_>
        <_>
          <internalNodes>
            0 -1 8 1073119214 -77463812 -135106625 682860212 1853349887
            -1074299017 -25174171 -369101578</internalNodes>
          <leafValues>
            -4.7560530900955200e-01 6.4106518030166626e-01</leafValues></_>
        <_>
          <internalNodes>
            0 -1 56 -776617684 -1871675328 4260942 1477443596 537038856
            -770047838 553683014 295512193</internalNodes>
          <leafValues>
            -7.2082626819610596e-01 3.8486745953559875e-01</leafValues></_>
        <_>
          <internalNodes>
            0 -1 221 432751049 -930480128 1073807617 318832705 4744
            167903232 -2147467136 1644797962</internalNodes>
          <leafValues>
            -5.5295407772064209e-01 5.1327866315841675e-01</leafValues></_>
        <_>
          <internalNodes>
            0 -1 47 -25121171 833335214 -16782465 1844673471 1845473151
            352321471 -562061459 -1627420801</internalNodes>
          <leafValues>
            -4.3132451176643372e-01 7.0298171043395996e-01</leafValues></_>
        <_>
          <internalNodes>
            0 -1 163 -712847283 2047918336 16793608 353304577
            -1979676152 -671055872 92323881 998473930</internalNodes>
          <leafValues>
            -5.6277418136596680e-01 5.1196944713592529e-01</leafValues></_></weakClassifiers></_>
    <!-- stage 15 -->
    <_>
      <maxWeakCount>14</maxWeakCount>
      <stageThreshold>-5.1966893672943115e-01</stageThreshold>
      <weakClassifiers>
        <_>
          <internalNodes>
            0 -1 66 376968 1879310402 134283520 1355939984 55433
            1627389952 75777 52151298</internalNodes>
          <leafValues>
            -6.6016715764999390e-01 5.1961952447891235e-01</leafValues></_>
        <_>
          <internalNodes>
            0 -1 138 -2147143341 98304 12 -788529140 -2147448632
            1074298880 34193564 689012747</internalNodes>
          <leafValues>
            -4.7207197546958923e-01 5.1573741436004639e-01</leafValues></_>
        <_>
          <internalNodes>
            0 -1 180 -1359016641 -419463169 -36876 -269516801 -16847650
            2122317695 -16976145 -1543964847</internalNodes>
          <leafValues>
            -4.2207145690917969e-01 5.9953504800796509e-01</leafValues></_>
        <_>
          <internalNodes>
            0 -1 34 -1099104673 1604910975 -16863514 -1141887240
            -696394276 511704959 2013205526 -933376785</internalNodes>
          <leafValues>
            -4.4673427939414978e-01 5.7414525747299194e-01</leafValues></_>
        <_>
          <internalNodes>
            0 -1 167 592396324 1090650122 134221824 -2125987308
            -1979031544 -2009989120 1082654842 1881227298</internalNodes>
          <leafValues>
            -6.8079131841659546e-01 3.6619746685028076e-01</leafValues></_>
        <_>
          <internalNodes>
            0 -1 123 -2109206491 -2071855103 -1861168125 554958976
            940048387 -1979678720 -1442817773 -668466847</internalNodes>
          <leafValues>
            -6.4007669687271118e-01 4.2214778065681458e-01</leafValues></_>
        <_>
          <internalNodes>
            0 -1 35 -1094828305 -1879707716 -1090584602 -1149518086
            -436855592 107315199 -536949323 138231116</internalNodes>
          <leafValues>
            -4.5332646369934082e-01 6.1050689220428467e-01</leafValues></_>
        <_>
          <internalNodes>
            0 -1 15 352977351 1011941632 1073762706 874053898 134391814
            268435456 -2147434478 1057220609</internalNodes>
          <leafValues>
            -6.3505619764328003e-01 4.3216574192047119e-01</leafValues></_>
        <_>
          <internalNodes>
            0 -1 88 1128304676 1125154946 -1073463264 -1311763578
            539426968 1107525898 98305 536986395</internalNodes>
          <leafValues>
            -7.5013643503189087e-01 3.6882564425468445e-01</leafValues></_>
        <_>
          <internalNodes>
            0 -1 25 -1962910947 -788529132 -2137980912 -1056960495 98434
            545783808 40969 25297289</internalNodes>
          <leafValues>
            -7.0262241363525391e-01 4.1351065039634705e-01</leafValues></_>
        <_>
          <internalNodes>
            0 -1 153 -274348893 2118041519 -1090553990 -1006731397
            888645631 2147481599 838828029 -587891468</internalNodes>
          <leafValues>
            -4.9598714709281921e-01 6.1456137895584106e-01</leafValues></_>
        <_>
          <internalNodes>
            0 -1 149 21057755 838861697 1098907675 1277051139
            -1610547096 570556678 -1331690943 -1165840176</internalNodes>
          <leafValues>
            -6.2495368719100952e-01 4.5353966951370239e-01</leafValues></_>
        <_>
          <internalNodes>
            0 -1 114 -286327133 -73007106 -285216844 -897794139
            -536969260 2013265917 2147385324 343827956</internalNodes>
          <leafValues>
            -4.5368042588233948e-01 6.0571670532226562e-01</leafValues></_>
        <_>
          <internalNodes>
            0 -1 146 -1882897331 -2138012663 -518979544 -788424064
            -536836065 25329802 -2105524151 -224231408</internalNodes>
          <leafValues>
            -5.8216476440429688e-01 4.9809882044792175e-01</leafValues></_></weakClassifiers></_>
    <!-- stage 16 -->
    <_>
      <maxWeakCount>10</maxWeakCount>
      <stageThreshold>-6.3131920993328094e-02</stageThreshold>
      <weakClassifiers>
        <_>
          <internalNodes>
            0 -1 73 -2130694110 -1031798702 86416 1074004036 -1585348480
            138936346 -1996355582 1560289281</internalNodes>
          <leafValues>
            -6.3440859317779541e-01 5.2657002210617065e-01</leafValues></_>
        <_>
          <internalNodes>
            0 -1 169 -419578319 -659685377 -268439952 -151781388
            1073076725 1433862000 -717357699 1595929899</internalNodes>
          <leafValues>
            -4.1563442349433899e-01 6.0870814323425293e-01</leafValues></_>
        <_>
          <internalNodes>
            0 -1 5 1141133697 -384737152 1157632017 286343440 32769
            17039360 101220360 92311817</internalNodes>
          <leafValues>
            -5.8401316404342651e-01 4.5978385210037231e-01</leafValues></_>
        <_>
          <internalNodes>
            0 -1 48 -786513728 1359020304 16859276 1090584594 17088657
            16777344 -2013265781 143475008</internalNodes>
          <leafValues>
            -5.3435570001602173e-01 5.2687299251556396e-01</leafValues></_>
        <_>
          <internalNodes>
            0 -1 174 1043709908 -169377793 -4115 -1497464835 -159551652
            -302120963 -1124794434 99481470</internalNodes>
          <leafValues>
            -4.5941400527954102e-01 6.2506973743438721e-01</leafValues></_>
        <_>
          <internalNodes>
            0 -1 135 -745678432 1417805824 1074790400 -1602141312
            -1979547478 33434 -1870430052 2030113281</internalNodes>
          <leafValues>
            -5.4951405525207520e-01 5.0730842351913452e-01</leafValues></_>
        <_>
          <internalNodes>
            0 -1 170 780276813 -788447039 1091575808 -1331580734
            153223326 -1996390264 -124780151 714813472</internalNodes>
          <leafValues>
            -6.1544156074523926e-01 4.7351861000061035e-01</leafValues></_>
        <_>
          <internalNodes>
            0 -1 90 268785432 65561 268509584 -1273884624 524424
            301989896 -1870626816 -1157592423</internalNodes>
          <leafValues>
            -6.0303485393524170e-01 4.7454789280891418e-01</leafValues></_>
        <_>
          <internalNodes>
            0 -1 229 16892315 319963136 18944 -1828683229 135921883
            -2146434800 8454913 1085710859</internalNodes>
          <leafValues>
            -5.4679995775222778e-01 5.4474461078643799e-01</leafValues></_>
        <_>
          <internalNodes>
            0 -1 39 -16838980 1878882303 -285212931 -1196294149
            2147479261 -276856969 -134226322 -10109410</internalNodes>
          <leafValues>
            -4.0754404664039612e-01 7.1765530109405518e-01</leafValues></_></weakClassifiers></_>
    <!-- stage 17 -->
    <_>
      <maxWeakCount>10</maxWeakCount>
      <stageThreshold>-2.3005522787570953e-02</stageThreshold>
      <weakClassifiers>
        <_>
          <internalNodes>
            0 -1 176 273775968 -47284288 4256 -100744128 905394132
            1971191797 2096602918 2016800942</internalNodes>
          <leafValues>
            -5.0566893815994263e-01 5.5731225013732910e-01</leafValues></_>
        <_>
          <internalNodes>
            0 -1 147 -2112839328 67764306 1126170992 -1060958207
            -1207435128 2030600193 285246106 1344492163</internalNodes>
          <leafValues>
            -5.8666020631790161e-01 4.1170054674148560e-01</leafValues></_>
        <_>
          <internalNodes>
            0 -1 75 272629844 1477443586 268435520 -644546488 37011
            -1744830464 -2011101174 1493926793</internalNodes>
          <leafValues>
            -5.4138374328613281e-01 4.6722796559333801e-01</leafValues></_>
        <_>
          <internalNodes>
            0 -1 110 -1095706703 2147368957 2147467261 1660829181
            -268976137 -1107296257 939507646 -1107739151</internalNodes>
          <leafValues>
            -4.3642914295196533e-01 6.0675340890884399e-01</leafValues></_>
        <_>
          <internalNodes>
            0 -1 139 1856095429 1475751735 939468342 -134254854
            1969149597 -149633 1073603965 -323195468</internalNodes>
          <leafValues>
            -3.5873940587043762e-01 6.9704633951187134e-01</leafValues></_>
        <_>
          <internalNodes>
            0 -1 178 1828699761 -318930952 -301994756 1962844154
            1979180477 2113236182 2113844986 -1372400332</internalNodes>
          <leafValues>
            -4.6335357427597046e-01 5.5525815486907959e-01</leafValues></_>
        <_>
          <internalNodes>
            0 -1 0 1258850355 1392574593 268468608 864288769 16812333
            -905969664 318782089 687866376</internalNodes>
          <leafValues>
            -5.0014930963516235e-01 5.0263726711273193e-01</leafValues></_>
        <_>
          <internalNodes>
            0 -1 214 -2097003871 -481755007 -1862262647 -268435456
            1083531 -2063466486 1220577483 225248301</internalNodes>
          <leafValues>
            -5.4809272289276123e-01 4.8435872793197632e-01</leafValues></_>
        <_>
          <internalNodes>
            0 -1 105 2109374071 502202367 -1090588802 -8552450 -41763
            -160008201 2147417816 410336767</internalNodes>
          <leafValues>
            -4.6624559164047241e-01 5.9272837638854980e-01</leafValues></_>
        <_>
          <internalNodes>
            0 -1 227 -534393087 -2118040062 7372908 10780690 -2004857717
            1711308928 1249915072 71336537</internalNodes>
          <leafValues>
            -6.7710506916046143e-01 4.1153135895729065e-01</leafValues></_></weakClassifiers></_>
    <!-- stage 18 -->
    <_>
      <maxWeakCount>12</maxWeakCount>
      <stageThreshold>-3.9226168394088745e-01</stageThreshold>
      <weakClassifiers>
        <_>
          <internalNodes>
            0 -1 9 -398026673 873594880 16 843579400 -1072962919
            536936480 -2102785856 1430847624</internalNodes>
          <leafValues>
            -5.5172413587570190e-01 5.3400504589080811e-01</leafValues></_>
        <_>
          <internalNodes>
            0 -1 77 -302481633 369033087 -16842821 329670386 1174339534
            -898301959 -151621906 -1653205521</internalNodes>
          <leafValues>
            -3.9420345425605774e-01 6.0359525680541992e-01</leafValues></_>
        <_>
          <internalNodes>
            0 -1 115 298090816 1540391379 65861 424052842 411601026
            1535117440 -2147276662 1670070472</internalNodes>
          <leafValues>
            -5.3488022089004517e-01 4.5405992865562439e-01</leafValues></_>
        <_>
          <internalNodes>
            0 -1 175 1003523 1023410561 1073762570 268472576 402663425
            1073807488 -267904800 -1339899904</internalNodes>
          <leafValues>
            -6.1408513784408569e-01 4.0116128325462341e-01</leafValues></_>
        <_>
          <internalNodes>
            0 -1 156 -1064828748 -654310782 1114260 -238862336 654426248
            940222592 -1667751257 579403778</internalNodes>
          <leafValues>
            -5.5805766582489014e-01 4.5907014608383179e-01</leafValues></_>
        <_>
          <internalNodes>
            0 -1 62 -2071440959 1182924817 4376 1392508928 1073784968
            168296449 -2146791286 1258291352</internalNodes>
          <leafValues>
            -6.5543496608734131e-01 3.7312132120132446e-01</leafValues></_>
        <_>
          <internalNodes>
            0 -1 142 -744879983 1421869056 85262596 1099727121
            1543548963 33554432 268632523 734947523</internalNodes>
          <leafValues>
            -4.8343321681022644e-01 4.9523308873176575e-01</leafValues></_>
        <_>
          <internalNodes>
            0 -1 26 -234601403 453021697 -2147467240 295968769 545292328
            -1475346432 570425473 -58144119</internalNodes>
          <leafValues>
            -4.6569740772247314e-01 5.1567596197128296e-01</leafValues></_>
        <_>
          <internalNodes>
            0 -1 219 -2147335401 1073842177 16386 -2147319679 159437465
            -2147352574 136724689 428821241</internalNodes>
          <leafValues>
            -6.0053628683090210e-01 4.3692675232887268e-01</leafValues></_>
        <_>
          <internalNodes>
            0 -1 57 -2011572727 67174689 285225027 -267087872 1611139210
            -1438613440 176193940 -439038966</internalNodes>
          <leafValues>
            -6.0524529218673706e-01 4.3093365430831909e-01</leafValues></_>
        <_>
          <internalNodes>
            0 -1 124 323240266 -1958641455 1216368717 994181636
            -662075197 -612204408 -2013007845 866134472</internalNodes>
          <leafValues>
            -5.5353581905364990e-01 5.0423806905746460e-01</leafValues></_>
        <_>
          <internalNodes>
            0 -1 128 -385722237 1228947520 -1610268272 -515108543 549512
            -938999792 1409878156 -367312374</internalNodes>
          <leafValues>
            -4.7036516666412354e-01 5.6193995475769043e-01</leafValues></_></weakClassifiers></_>
    <!-- stage 19 -->
    <_>
      <maxWeakCount>13</maxWeakCount>
      <stageThreshold>-7.6401728391647339e-01</stageThreshold>
      <weakClassifiers>
        <_>
          <internalNodes>
            0 -1 132 260769793 278004226 1155039408 52166688 1908498821
            8519680 50399657 545592322</internalNodes>
          <leafValues>
            -6.6060608625411987e-01 4.8045977950096130e-01</leafValues></_>
        <_>
          <internalNodes>
            0 -1 20 -418689639 788795394 -1862234095 -150988735
            268566664 612368384 -2122153719 -981286776</internalNodes>
          <leafValues>
            -4.3568533658981323e-01 5.1092833280563354e-01</leafValues></_>
        <_>
          <internalNodes>
            0 -1 120 -1593178061 -551878656 -520088496 -939510703
            -2138406902 -536739680 1073889290 -643016543</internalNodes>
          <leafValues>
            -4.8021775484085083e-01 4.8242369294166565e-01</leafValues></_>
        <_>
          <internalNodes>
            0 -1 38 -1308622847 -251649528 -1325383680 290459651 8388736
            -805306367 -1609957248 -1349475568</internalNodes>
          <leafValues>
            -5.5847859382629395e-01 4.1588911414146423e-01</leafValues></_>
        <_>
          <internalNodes>
            0 -1 208 -804728641 -1929379840 129 1477447704 -1971091445
            268468232 -2004252498 -987658205</internalNodes>
          <leafValues>
            -4.9957433342933655e-01 4.8152860999107361e-01</leafValues></_>
        <_>
          <internalNodes>
            0 -1 93 -2147467135 335675392 16777628 322961624 -1342177126
            -1879048176 68508 319424601</internalNodes>
          <leafValues>
            -5.8347874879837036e-01 3.9406731724739075e-01</leafValues></_>
        <_>
          <internalNodes>
            0 -1 85 -1743634298 285282336 65536 1614872705 1082761754
            -2147418104 -2147417975 2018179072</internalNodes>
          <leafValues>
            -5.8907461166381836e-01 3.9442512392997742e-01</leafValues></_>
        <_>
          <internalNodes>
            0 -1 164 -1006507899 1245708418 553648519 118095872
            806436247 -939524096 268435705 1422491789</internalNodes>
          <leafValues>
            -4.9967366456985474e-01 5.2093636989593506e-01</leafValues></_>
        <_>
          <internalNodes>
            0 -1 148 1043967849 -53542920 -4428 2013216378 880787308
            -33652739 2079829982 649396180</internalNodes>
          <leafValues>
            -4.5845660567283630e-01 5.4425168037414551e-01</leafValues></_>
        <_>
          <internalNodes>
            0 -1 226 902911 -1996488704 557058 352862226 -788477792
            142641153 -1333747197 275791937</internalNodes>
          <leafValues>
            -5.5531704425811768e-01 4.6185204386711121e-01</leafValues></_>
        <_>
          <internalNodes>
            0 -1 100 297865886 -1879011103 277958915 -1190657960
            -1333553143 -469762048 537415711 831429129</internalNodes>
          <leafValues>
            -5.5274504423141479e-01 4.5874363183975220e-01</leafValues></_>
        <_>
          <internalNodes>
            0 -1 1 -653175863 -352235520 -2147414000 -501869792 34078736
            -1081606135 -2139095040 2011430920</internalNodes>
          <leafValues>
            -5.7602345943450928e-01 4.5044806599617004e-01</leafValues></_>
        <_>
          <internalNodes>
            0 -1 185 -423865122 2063234942 -8495446 2133065727 -25190680
            934739839 -1095 863600627</internalNodes>
          <leafValues>
            -4.4238051772117615e-01 6.1922538280487061e-01</leafValues></_></weakClassifiers></_>
    <!-- stage 20 -->
    <_>
      <maxWeakCount>16</maxWeakCount>
      <stageThreshold>-3.1782177090644836e-01</stageThreshold>
      <weakClassifiers>
        <_>
          <internalNodes>
            0 -1 67 151835976 282280773 67108864 -1058372462 178454986
            -2138963968 143147154 -535649999</internalNodes>
          <leafValues>
            -5.9740257263183594e-01 4.3049326539039612e-01</leafValues></_>
        <_>
          <internalNodes>
            0 -1 31 -1056890557 -503119608 268440578 -225374204
            1946193961 1762148625 -2147253751 -494108535</internalNodes>
          <leafValues>
            -5.2972906827926636e-01 4.5239862799644470e-01</leafValues></_>
        <_>
          <internalNodes>
            0 -1 141 1221904512 -939507552 -1862264511 1216872458
            -2080333129 134219786 167776841 2038988931</internalNodes>
          <leafValues>
            -4.5184937119483948e-01 5.5863583087921143e-01</leafValues></_>
        <_>
          <internalNodes>
            0 -1 97 -537100611 536866679 2147385071 -245563394 -16892207
            -17301641 -106502 -619298885</internalNodes>
          <leafValues>
            -3.8241833448410034e-01 6.1618638038635254e-01</leafValues></_>
        <_>
          <internalNodes>
            0 -1 2 1141926804 1358954560 823157073 353394769 8391433
            -1476390904 822249731 -895972710</internalNodes>
          <leafValues>
            -5.1422917842864990e-01 4.2273196578025818e-01</leafValues></_>
        <_>
          <internalNodes>
            0 -1 225 289604067 33587203 54275 -1576042494 1813119127
            -1173617664 696820142 967235720</internalNodes>
          <leafValues>
            -5.3606349229812622e-01 4.4224846363067627e-01</leafValues></_>
        <_>
          <internalNodes>
            0 -1 118 -1802243943 1485394304 -2119134910 -2142945112
            1644335358 8912904 -2122276440 637566976</internalNodes>
          <leafValues>
            -5.0136893987655640e-01 4.7659543156623840e-01</leafValues></_>
        <_>
          <internalNodes>
            0 -1 194 1114421 1023541249 151063368 352387074 1744863923
            -1299316736 -2104883039 -842458613</internalNodes>
          <leafValues>
            -5.0664162635803223e-01 5.1434552669525146e-01</leafValues></_>
        <_>
          <internalNodes>
            0 -1 191 1073906080 -231643131 4263936 -2147467132
            -1610536824 -2105507712 281103004 9192133</internalNodes>
          <leafValues>
            -6.0801821947097778e-01 4.2683157324790955e-01</leafValues></_>
        <_>
          <internalNodes>
            0 -1 125 135465081 -1862006712 268714253 -1743519596
            581534280 -1610153816 1124212744 117723163</internalNodes>
          <leafValues>
            -6.1965364217758179e-01 3.9773318171501160e-01</leafValues></_>
        <_>
          <internalNodes>
            0 -1 45 -519993055 1697120256 -654225327 1342181656
            304122505 -1542979560 1073742345 -1006370165</internalNodes>
          <leafValues>
            -5.7804846763610840e-01 4.1577917337417603e-01</leafValues></_>
        <_>
          <internalNodes>
            0 -1 181 2429019 -2055012352 16781395 2123431954 -1735917559
            1207992458 671129841 -285208412</internalNodes>
          <leafValues>
            -5.3943210840225220e-01 4.5851507782936096e-01</leafValues></_>
        <_>
          <internalNodes>
            0 -1 96 1392513238 -1170046973 318832641 939966481
            -2146946936 -1073733631 -2012905326 -202734950</internalNodes>
          <leafValues>
            -5.0935566425323486e-01 4.9361363053321838e-01</leafValues></_>
        <_>
          <internalNodes>
            0 -1 228 978032269 1108541760 201 54526081 -2004871162
            -2113404918 -2147483477 -1023114718</internalNodes>
          <leafValues>
            -5.0427621603012085e-01 5.0976449251174927e-01</leafValues></_>
        <_>
          <internalNodes>
            0 -1 103 1914888394 386056195 32852 2030047440 -2113265655
            2013266064 -1870657494 134818307</internalNodes>
          <leafValues>
            -5.0682449340820312e-01 4.7229668498039246e-01</leafValues></_>
        <_>
          <internalNodes>
            0 -1 3 246280221 2113924863 2147479535 801111791 -2049972483
            -17899521 2003828477 -604049409</internalNodes>
          <leafValues>
            -4.1135010123252869e-01 6.4173567295074463e-01</leafValues></_></weakClassifiers></_></stages>
  <features>
    <_>
      <rect>
        0 0 2 5</rect></_>
    <_>
      <rect>
        0 0 3 1</rect></_>
    <_>
      <rect>
        0 0 4 4</rect></_>
    <_>
      <rect>
        0 0 6 6</rect></_>
    <_>
      <rect>
        0 0 8 8</rect></_>
    <_>
      <rect>
        0 2 2 3</rect></_>
    <_>
      <rect>
        0 2 2 4</rect></_>
    <_>
      <rect>
        0 7 6 4</rect></_>
    <_>
      <rect>
        0 8 4 5</rect></_>
    <_>
      <rect>
        0 10 2 3</rect></_>
    <_>
      <rect>
        0 11 4 3</rect></_>
    <_>
      <rect>
        0 12 2 4</rect></_>
    <_>
      <rect>
        0 13 1 2</rect></_>
    <_>
      <rect>
        0 13 3 3</rect></_>
    <_>
      <rect>
        0 15 2 1</rect></_>
    <_>
      <rect>
        0 17 1 1</rect></_>
    <_>
      <rect>
        1 0 2 2</rect></_>
    <_>
      <rect>
        1 3 2 2</rect></_>
    <_>
      <rect>
        1 3 3 3</rect></_>
    <_>
      <rect>
        1 6 1 2</rect></_>
    <_>
      <rect>
        1 7 1 2</rect></_>
    <_>
      <rect>
        1 10 1 1</rect></_>
    <_>
      <rect>
        1 10 2 4</rect></_>
    <_>
      <rect>
        1 13 1 1</rect></_>
    <_>
      <rect>
        2 1 6 2</rect></_>
    <_>
      <rect>
        2 2 1 3</rect></_>
    <_>
      <rect>
        2 2 3 4</rect></_>
    <_>
      <rect>
        2 3 2 4</rect></_>
    <_>
      <rect>
        2 6 2 6</rect></_>
    <_>
      <rect>
        2 7 1 1</rect></_>
    <_>
      <rect>
        2 7 7 5</rect></_>
    <_>
      <rect>
        2 10 1 1</rect></_>
    <_>
      <rect>
        2 10 1 3</rect></_>
    <_>
      <rect>
        2 11 1 1</rect></_>
    <_>
      <rect>
        2 11 2 3</rect></_>
    <_>
      <rect>
        2 12 3 3</rect></_>
    <_>
      <rect>
        2 13 1 1</rect></_>
    <_>
      <rect>
        2 14 1 1</rect></_>
    <_>
      <rect>
        2 15 1 2</rect></_>
    <_>
      <rect>
        2 16 1 1</rect></_>
    <_>
      <rect>
        2 17 2 2</rect></_>
    <_>
      <rect>
        2 17 6 2</rect></_>
    <_>
      <rect>
        3 0 2 2</rect></_>
    <_>
      <rect>
        3 0 3 2</rect></_>
    <_>
      <rect>
        3 2 3 6</rect></_>
    <_>
      <rect>
        3 3 2 1</rect></_>
    <_>
      <rect>
        3 4 1 2</rect></_>
    <_>
      <rect>
        3 4 3 3</rect></_>
    <_>
      <rect>
        3 5 2 5</rect></_>
    <_>
      <rect>
        3 6 1 1</rect></_>
    <_>
      <rect>
        3 6 3 3</rect></_>
    <_>
      <rect>
        3 9 1 1</rect></_>
    <_>
      <rect>
        3 9 3 5</rect></_>
    <_>
      <rect>
        3 9 6 3</rect></_>
    <_>
      <rect>
        3 10 1 1</rect></_>
    <_>
      <rect>
        3 11 5 3</rect></_>
    <_>
      <rect>
        3 11 6 3</rect></_>
    <_>
      <rect>
        3 12 1 1</rect></_>
    <_>
      <rect>
        3 13 1 1</rect></_>
    <_>
      <rect>
        3 15 1 1</rect></_>
    <_>
      <rect>
        3 15 1 2</rect></_>
    <_>
      <rect>
        3 16 1 2</rect></_>
    <_>
      <rect>
        3 16 2 2</rect></_>
    <_>
      <rect>
        3 17 2 1</rect></_>
    <_>
      <rect>
        3 17 3 2</rect></_>
    <_>
      <rect>
        3 18 1 1</rect></_>
    <_>
      <rect>
        4 1 5 5</rect></_>
    <_>
      <rect>
        4 1 5 7</rect></_>
    <_>
      <rect>
        4 2 4 4</rect></_>
    <_>
      <rect>
        4 2 5 6</rect></_>
    <_>
      <rect>
        4 3 4 3</rect></_>
    <_>
      <rect>
        4 4 6 5</rect></_>
    <_>
      <rect>
        4 11 1 1</rect></_>
    <_>
      <rect>
        4 13 6 3</rect></_>
    <_>
      <rect>
        4 14 6 3</rect></_>
    <_>
      <rect>
        4 17 5 2</rect></_>
    <_>
      <rect>
        4 18 1 1</rect></_>
    <_>
      <rect>
        4 18 3 2</rect></_>
    <_>
      <rect>
        4 18 5 2</rect></_>
    <_>
      <rect>
        4 19 2 1</rect></_>
    <_>
      <rect>
        5 0 1 2</rect></_>
    <_>
      <rect>
        5 0 4 2</rect></_>
    <_>
      <rect>
        5 0 4 3</rect></_>
    <_>
      <rect>
        5 0 6 6</rect></_>
    <_>
      <rect>
        5 2 2 2</rect></_>
    <_>
      <rect>
        5 4 2 5</rect></_>
    <_>
      <rect>
        5 5 3 3</rect></_>
    <_>
      <rect>
        5 8 5 4</rect></_>
    <_>
      <rect>
        5 10 3 3</rect></_>
    <_>
      <rect>
        5 11 1 1</rect></_>
    <_>
      <rect>
        5 12 1 1</rect></_>
    <_>
      <rect>
        5 15 1 1</rect></_>
    <_>
      <rect>
        5 15 5 3</rect></_>
    <_>
      <rect>
        5 17 5 2</rect></_>
    <_>
      <rect>
        5 18 1 1</rect></_>
    <_>
      <rect>
        5 18 5 2</rect></_>
    <_>
      <rect>
        5 19 1 1</rect></_>
    <_>
      <rect>
        5 20 1 1</rect></_>
    <_>
      <rect>
        6 3 1 1</rect></_>
    <_>
      <rect>
        6 3 3 2</rect></_>
    <_>
      <rect>
        6 5 4 4</rect></_>
    <_>
      <rect>
        6 5 4 5</rect></_>
    <_>
      <rect>
        6 8 2 3</rect></_>
    <_>
      <rect>
        6 8 3 2</rect></_>
    <_>
      <rect>
        6 8 3 3</rect></_>
    <_>
      <rect>
        6 11 2 3</rect></_>
    <_>
      <rect>
        6 14 3 3</rect></_>
    <_>
      <rect>
        6 18 1 1</rect></_>
    <_>
      <rect>
        6 19 1 1</rect></_>
    <_>
      <rect>
        6 20 1 1</rect></_>
    <_>
      <rect>
        7 0 1 2</rect></_>
    <_>
      <rect>
        7 1 2 1</rect></_>
    <_>
      <rect>
        7 3 1 1</rect></_>
    <_>
      <rect>
        7 5 1 1</rect></_>
    <_>
      <rect>
        7 6 2 2</rect></_>
    <_>
      <rect>
        7 7 5 3</rect></_>
    <_>
      <rect>
        7 15 1 1</rect></_>
    <_>
      <rect>
        7 18 1 1</rect></_>
    <_>
      <rect>
        8 0 1 1</rect></_>
    <_>
      <rect>
        8 0 4 4</rect></_>
    <_>
      <rect>
        8 2 1 1</rect></_>
    <_>
      <rect>
        8 2 4 2</rect></_>
    <_>
      <rect>
        8 3 1 1</rect></_>
    <_>
      <rect>
        8 4 1 1</rect></_>
    <_>
      <rect>
        8 7 4 3</rect></_>
    <_>
      <rect>
        8 12 3 3</rect></_>
    <_>
      <rect>
        8 17 3 2</rect></_>
    <_>
      <rect>
        8 20 1 1</rect></_>
    <_>
      <rect>
        9 0 3 4</rect></_>
    <_>
      <rect>
        9 0 3 5</rect></_>
    <_>
      <rect>
        9 0 4 2</rect></_>
    <_>
      <rect>
        9 0 4 3</rect></_>
    <_>
      <rect>
        9 1 3 4</rect></_>
    <_>
      <rect>
        9 2 2 1</rect></_>
    <_>
      <rect>
        9 4 2 1</rect></_>
    <_>
      <rect>
        9 4 3 4</rect></_>
    <_>
      <rect>
        9 10 2 2</rect></_>
    <_>
      <rect>
        9 11 3 3</rect></_>
    <_>
      <rect>
        9 17 3 2</rect></_>
    <_>
      <rect>
        10 0 3 4</rect></_>
    <_>
      <rect>
        10 1 2 1</rect></_>
    <_>
      <rect>
        10 2 4 3</rect></_>
    <_>
      <rect>
        10 3 3 4</rect></_>
    <_>
      <rect>
        10 5 3 4</rect></_>
    <_>
      <rect>
        10 6 3 2</rect></_>
    <_>
      <rect>
        10 6 3 3</rect></_>
    <_>
      <rect>
        10 7 1 1</rect></_>
    <_>
      <rect>
        10 8 3 4</rect></_>
    <_>
      <rect>
        10 9 3 3</rect></_>
    <_>
      <rect>
        10 14 1 1</rect></_>
    <_>
      <rect>
        10 15 3 3</rect></_>
    <_>
      <rect>
        10 18 2 2</rect></_>
    <_>
      <rect>
        10 19 1 1</rect></_>
    <_>
      <rect>
        11 0 3 5</rect></_>
    <_>
      <rect>
        11 1 2 2</rect></_>
    <_>
      <rect>
        11 2 1 7</rect></_>
    <_>
      <rect>
        11 2 2 2</rect></_>
    <_>
      <rect>
        11 6 4 4</rect></_>
    <_>
      <rect>
        11 7 1 1</rect></_>
    <_>
      <rect>
        11 8 3 4</rect></_>
    <_>
      <rect>
        11 19 1 1</rect></_>
    <_>
      <rect>
        11 21 2 1</rect></_>
    <_>
      <rect>
        12 0 3 2</rect></_>
    <_>
      <rect>
        12 1 3 2</rect></_>
    <_>
      <rect>
        12 3 3 3</rect></_>
    <_>
      <rect>
        12 4 4 4</rect></_>
    <_>
      <rect>
        12 8 2 3</rect></_>
    <_>
      <rect>
        12 8 3 4</rect></_>
    <_>
      <rect>
        12 17 2 2</rect></_>
    <_>
      <rect>
        12 17 3 2</rect></_>
    <_>
      <rect>
        12 21 1 1</rect></_>
    <_>
      <rect>
        13 3 1 1</rect></_>
    <_>
      <rect>
        13 4 3 4</rect></_>
    <_>
      <rect>
        13 6 3 4</rect></_>
    <_>
      <rect>
        13 8 2 3</rect></_>
    <_>
      <rect>
        13 11 1 1</rect></_>
    <_>
      <rect>
        13 11 3 3</rect></_>
    <_>
      <rect>
        13 12 3 3</rect></_>
    <_>
      <rect>
        13 12 3 4</rect></_>
    <_>
      <rect>
        13 14 1 1</rect></_>
    <_>
      <rect>
        14 4 1 1</rect></_>
    <_>
      <rect>
        14 13 1 1</rect></_>
    <_>
      <rect>
        14 18 1 1</rect></_>
    <_>
      <rect>
        14 18 2 2</rect></_>
    <_>
      <rect>
        14 20 1 1</rect></_>
    <_>
      <rect>
        15 0 2 2</rect></_>
    <_>
      <rect>
        15 2 1 1</rect></_>
    <_>
      <rect>
        15 4 1 1</rect></_>
    <_>
      <rect>
        15 4 3 2</rect></_>
    <_>
      <rect>
        15 4 3 4</rect></_>
    <_>
      <rect>
        15 6 1 3</rect></_>
    <_>
      <rect>
        15 7 2 3</rect></_>
    <_>
      <rect>
        15 16 1 1</rect></_>
    <_>
      <rect>
        15 19 1 1</rect></_>
    <_>
      <rect>
        15 19 2 1</rect></_>
    <_>
      <rect>
        16 3 1 1</rect></_>
    <_>
      <rect>
        16 4 1 2</rect></_>
    <_>
      <rect>
        16 5 1 1</rect></_>
    <_>
      <rect>
        16 15 1 1</rect></_>
    <_>
      <rect>
        16 18 2 1</rect></_>
    <_>
      <rect>
        17 6 1 1</rect></_>
    <_>
      <rect>
        17 12 2 2</rect></_>
    <_>
      <rect>
        17 17 1 1</rect></_>
    <_>
      <rect>
        18 3 2 1</rect></_>
    <_>
      <rect>
        18 5 2 4</rect></_>
    <_>
      <rect>
        18 6 1 1</rect></_>
    <_>
      <rect>
        18 6 2 3</rect></_>
    <_>
      <rect>
        18 7 1 1</rect></_>
    <_>
      <rect>
        18 7 2 1</rect></_>
    <_>
      <rect>
        18 10 2 4</rect></_>
    <_>
      <rect>
        18 14 1 1</rect></_>
    <_>
      <rect>
        18 14 1 2</rect></_>
    <_>
      <rect>
        18 14 2 2</rect></_>
    <_>
      <rect>
        18 15 1 1</rect></_>
    <_>
      <rect>
        18 18 1 2</rect></_>
    <_>
      <rect>
        19 10 1 1</rect></_>
    <_>
      <rect>
        19 11 1 1</rect></_>
    <_>
      <rect>
        19 14 1 1</rect></_>
    <_>
      <rect>
        19 15 1 1</rect></_>
    <_>
      <rect>
        19 15 1 2</rect></_>
    <_>
      <rect>
        19 16 1 1</rect></_>
    <_>
      <rect>
        20 7 1 5</rect></_>
    <_>
      <rect>
        20 8 1 2</rect></_>
    <_>
      <rect>
        20 8 1 3</rect></_>
    <_>
      <rect>
        20 10 1 1</rect></_>
    <_>
      <rect>
        20 21 1 1</rect></_>
    <_>
      <rect>
        21 1 1 3</rect></_>
    <_>
      <rect>
        21 4 1 1</rect></_>
    <_>
      <rect>
        21 9 1 2</rect></_>
    <_>
      <rect>
        21 13 1 3</rect></_></features></cascade>
</opencv_storage>
